digraph Tree {
node [shape=box, style="filled, rounded", color="black", fontname=helvetica] ;
edge [fontname=helvetica] ;
0 [label=<X<SUB>4</SUB> &le; 110.708<br/>mae = 29.8<br/>samples = 3028<br/>value = 97.561>, fillcolor="#e5813945"] ;
1 [label=<X<SUB>4</SUB> &le; 82.398<br/>mae = 9.075<br/>samples = 1712<br/>value = 82.804>, fillcolor="#e5813928"] ;
0 -> 1 [labeldistance=2.5, labelangle=45, headlabel="True"] ;
2 [label=<X<SUB>4</SUB> &le; 72.969<br/>mae = 5.08<br/>samples = 831<br/>value = 76.081>, fillcolor="#e581391b"] ;
1 -> 2 ;
3 [label=<X<SUB>4</SUB> &le; 67.835<br/>mae = 4.119<br/>samples = 253<br/>value = 69.014>, fillcolor="#e581390d"] ;
2 -> 3 ;
4 [label=<X<SUB>4</SUB> &le; 62.622<br/>mae = 3.418<br/>samples = 119<br/>value = 66.098>, fillcolor="#e5813908"] ;
3 -> 4 ;
5 [label=<mae = 5.142<br/>samples = 22<br/>value = 62.168>, fillcolor="#e5813900"] ;
4 -> 5 ;
6 [label=<mae = 2.559<br/>samples = 97<br/>value = 66.434>, fillcolor="#e5813908"] ;
4 -> 6 ;
7 [label=<X<SUB>4</SUB> &le; 70.602<br/>mae = 3.025<br/>samples = 134<br/>value = 71.083>, fillcolor="#e5813911"] ;
3 -> 7 ;
8 [label=<mae = 2.81<br/>samples = 68<br/>value = 69.709>, fillcolor="#e581390f"] ;
7 -> 8 ;
9 [label=<mae = 2.393<br/>samples = 66<br/>value = 72.484>, fillcolor="#e5813914"] ;
7 -> 9 ;
10 [label=<X<SUB>4</SUB> &le; 76.895<br/>mae = 3.484<br/>samples = 578<br/>value = 77.971>, fillcolor="#e581391f"] ;
2 -> 10 ;
11 [label=<X<SUB>4</SUB> &le; 74.974<br/>mae = 2.678<br/>samples = 227<br/>value = 75.172>, fillcolor="#e5813919"] ;
10 -> 11 ;
12 [label=<mae = 2.724<br/>samples = 122<br/>value = 74.25>, fillcolor="#e5813917"] ;
11 -> 12 ;
13 [label=<mae = 2.118<br/>samples = 105<br/>value = 76.052>, fillcolor="#e581391b"] ;
11 -> 13 ;
14 [label=<X<SUB>4</SUB> &le; 79.368<br/>mae = 2.631<br/>samples = 351<br/>value = 79.7>, fillcolor="#e5813922"] ;
10 -> 14 ;
15 [label=<mae = 2.134<br/>samples = 173<br/>value = 78.571>, fillcolor="#e5813920"] ;
14 -> 15 ;
16 [label=<mae = 2.538<br/>samples = 178<br/>value = 80.888>, fillcolor="#e5813924"] ;
14 -> 16 ;
17 [label=<X<SUB>38</SUB> &le; 93.768<br/>mae = 7.805<br/>samples = 881<br/>value = 88.111>, fillcolor="#e5813932"] ;
1 -> 17 ;
18 [label=<X<SUB>4</SUB> &le; 88.878<br/>mae = 3.82<br/>samples = 656<br/>value = 86.209>, fillcolor="#e581392f"] ;
17 -> 18 ;
19 [label=<X<SUB>4</SUB> &le; 85.162<br/>mae = 2.506<br/>samples = 451<br/>value = 85.3>, fillcolor="#e581392d"] ;
18 -> 19 ;
20 [label=<mae = 2.06<br/>samples = 208<br/>value = 84.05>, fillcolor="#e581392a"] ;
19 -> 20 ;
21 [label=<mae = 2.31<br/>samples = 243<br/>value = 86.492>, fillcolor="#e581392f"] ;
19 -> 21 ;
22 [label=<X<SUB>4</SUB> &le; 95.745<br/>mae = 4.318<br/>samples = 205<br/>value = 90.667>, fillcolor="#e5813937"] ;
18 -> 22 ;
23 [label=<mae = 3.059<br/>samples = 176<br/>value = 90.436>, fillcolor="#e5813937"] ;
22 -> 23 ;
24 [label=<mae = 9.02<br/>samples = 29<br/>value = 97.173>, fillcolor="#e5813944"] ;
22 -> 24 ;
25 [label=<X<SUB>4</SUB> &le; 104.536<br/>mae = 7.085<br/>samples = 225<br/>value = 105.263>, fillcolor="#e5813954"] ;
17 -> 25 ;
26 [label=<X<SUB>33</SUB> &le; 153.35<br/>mae = 6.17<br/>samples = 119<br/>value = 100.0>, fillcolor="#e5813949"] ;
25 -> 26 ;
27 [label=<mae = 4.684<br/>samples = 109<br/>value = 99.668>, fillcolor="#e5813949"] ;
26 -> 27 ;
28 [label=<mae = 14.621<br/>samples = 10<br/>value = 117.723>, fillcolor="#e581396c"] ;
26 -> 28 ;
29 [label=<X<SUB>39</SUB> &le; 129.316<br/>mae = 4.979<br/>samples = 106<br/>value = 109.014>, fillcolor="#e581395b"] ;
25 -> 29 ;
30 [label=<mae = 4.06<br/>samples = 104<br/>value = 108.911>, fillcolor="#e581395b"] ;
29 -> 30 ;
31 [label=<mae = 1.523<br/>samples = 2<br/>value = 161.78>, fillcolor="#e58139c1"] ;
29 -> 31 ;
32 [label=<X<SUB>4</SUB> &le; 140.807<br/>mae = 20.507<br/>samples = 1316<br/>value = 142.522>, fillcolor="#e581399c"] ;
0 -> 32 [labeldistance=2.5, labelangle=-45, headlabel="False"] ;
33 [label=<X<SUB>4</SUB> &le; 126.816<br/>mae = 9.689<br/>samples = 642<br/>value = 123.903>, fillcolor="#e5813978"] ;
32 -> 33 ;
34 [label=<X<SUB>4</SUB> &le; 117.85<br/>mae = 5.541<br/>samples = 374<br/>value = 118.829>, fillcolor="#e581396e"] ;
33 -> 34 ;
35 [label=<X<SUB>4</SUB> &le; 112.483<br/>mae = 4.008<br/>samples = 166<br/>value = 115.165>, fillcolor="#e5813967"] ;
34 -> 35 ;
36 [label=<mae = 4.926<br/>samples = 47<br/>value = 111.864>, fillcolor="#e5813960"] ;
35 -> 36 ;
37 [label=<mae = 3.037<br/>samples = 119<br/>value = 116.082>, fillcolor="#e5813969"] ;
35 -> 37 ;
38 [label=<X<SUB>22</SUB> &le; -0.203<br/>mae = 5.03<br/>samples = 208<br/>value = 120.99>, fillcolor="#e5813972"] ;
34 -> 38 ;
39 [label=<mae = 13.623<br/>samples = 3<br/>value = 170.103>, fillcolor="#e58139d1"] ;
38 -> 39 ;
40 [label=<mae = 4.305<br/>samples = 205<br/>value = 120.968>, fillcolor="#e5813972"] ;
38 -> 40 ;
41 [label=<X<SUB>12</SUB> &le; 7900.15<br/>mae = 6.513<br/>samples = 268<br/>value = 134.89>, fillcolor="#e581398d"] ;
33 -> 41 ;
42 [label=<X<SUB>38</SUB> &le; 88.863<br/>mae = 6.252<br/>samples = 71<br/>value = 128.912>, fillcolor="#e5813981"] ;
41 -> 42 ;
43 [label=<mae = 5.888<br/>samples = 3<br/>value = 79.112>, fillcolor="#e5813921"] ;
42 -> 43 ;
44 [label=<mae = 4.205<br/>samples = 68<br/>value = 129.054>, fillcolor="#e5813982"] ;
42 -> 44 ;
45 [label=<X<SUB>22</SUB> &le; -0.132<br/>mae = 5.405<br/>samples = 197<br/>value = 135.983>, fillcolor="#e581398f"] ;
41 -> 45 ;
46 [label=<mae = 9.632<br/>samples = 10<br/>value = 161.087>, fillcolor="#e58139c0"] ;
45 -> 46 ;
47 [label=<mae = 4.421<br/>samples = 187<br/>value = 135.752>, fillcolor="#e581398f"] ;
45 -> 47 ;
48 [label=<X<SUB>4</SUB> &le; 166.722<br/>mae = 14.698<br/>samples = 674<br/>value = 158.492>, fillcolor="#e58139bb"] ;
32 -> 48 ;
49 [label=<X<SUB>4</SUB> &le; 153.821<br/>mae = 8.597<br/>samples = 439<br/>value = 153.454>, fillcolor="#e58139b1"] ;
48 -> 49 ;
50 [label=<X<SUB>4</SUB> &le; 147.071<br/>mae = 6.487<br/>samples = 225<br/>value = 149.833>, fillcolor="#e58139aa"] ;
49 -> 50 ;
51 [label=<mae = 6.194<br/>samples = 80<br/>value = 144.79>, fillcolor="#e58139a0"] ;
50 -> 51 ;
52 [label=<mae = 5.038<br/>samples = 145<br/>value = 151.06>, fillcolor="#e58139ac"] ;
50 -> 52 ;
53 [label=<X<SUB>4</SUB> &le; 161.571<br/>mae = 7.426<br/>samples = 214<br/>value = 158.565>, fillcolor="#e58139bb"] ;
49 -> 53 ;
54 [label=<mae = 6.714<br/>samples = 137<br/>value = 157.047>, fillcolor="#e58139b8"] ;
53 -> 54 ;
55 [label=<mae = 6.053<br/>samples = 77<br/>value = 164.122>, fillcolor="#e58139c6"] ;
53 -> 55 ;
56 [label=<X<SUB>4</SUB> &le; 188.503<br/>mae = 12.651<br/>samples = 235<br/>value = 179.682>, fillcolor="#e58139e4"] ;
48 -> 56 ;
57 [label=<X<SUB>4</SUB> &le; 173.442<br/>mae = 8.761<br/>samples = 166<br/>value = 176.046>, fillcolor="#e58139dd"] ;
56 -> 57 ;
58 [label=<mae = 7.543<br/>samples = 58<br/>value = 169.382>, fillcolor="#e58139d0"] ;
57 -> 58 ;
59 [label=<mae = 7.055<br/>samples = 108<br/>value = 179.321>, fillcolor="#e58139e3"] ;
57 -> 59 ;
60 [label=<X<SUB>21</SUB> &le; -0.162<br/>mae = 14.17<br/>samples = 69<br/>value = 193.467>, fillcolor="#e58139ff"] ;
56 -> 60 ;
61 [label=<mae = 0.0<br/>samples = 1<br/>value = 62.162>, fillcolor="#e5813900"] ;
60 -> 61 ;
62 [label=<mae = 12.448<br/>samples = 68<br/>value = 193.68>, fillcolor="#e58139ff"] ;
60 -> 62 ;
}