digraph Tree {
node [shape=box, style="filled, rounded", color="black", fontname=helvetica] ;
edge [fontname=helvetica] ;
0 [label=<X<SUB>4</SUB> &le; 140.953<br/>mse = 1184.35<br/>samples = 2448<br/>value = 128.838>, fillcolor="#e5813922"] ;
1 [label=<X<SUB>38</SUB> &le; 122.397<br/>mse = 308.058<br/>samples = 1766<br/>value = 112.992>, fillcolor="#e5813918"] ;
0 -> 1 [labeldistance=2.5, labelangle=45, headlabel="True"] ;
2 [label=<X<SUB>4</SUB> &le; 103.924<br/>mse = 176.196<br/>samples = 1496<br/>value = 109.147>, fillcolor="#e5813915"] ;
1 -> 2 ;
3 [label=<X<SUB>38</SUB> &le; 97.34<br/>mse = 77.365<br/>samples = 417<br/>value = 99.563>, fillcolor="#e581390f"] ;
2 -> 3 ;
4 [label=<X<SUB>36</SUB> &le; 338.75<br/>mse = 87.052<br/>samples = 141<br/>value = 93.517>, fillcolor="#e581390c"] ;
3 -> 4 ;
5 [label=<mse = 61.134<br/>samples = 138<br/>value = 92.877>, fillcolor="#e581390b"] ;
4 -> 5 ;
6 [label=<mse = 393.659<br/>samples = 3<br/>value = 122.959>, fillcolor="#e581391e"] ;
4 -> 6 ;
7 [label=<X<SUB>21</SUB> &le; -0.079<br/>mse = 44.205<br/>samples = 276<br/>value = 102.652>, fillcolor="#e5813911"] ;
3 -> 7 ;
8 [label=<mse = 76.218<br/>samples = 39<br/>value = 110.705>, fillcolor="#e5813916"] ;
7 -> 8 ;
9 [label=<mse = 26.508<br/>samples = 237<br/>value = 101.326>, fillcolor="#e5813911"] ;
7 -> 9 ;
10 [label=<X<SUB>4</SUB> &le; 111.782<br/>mse = 165.178<br/>samples = 1079<br/>value = 112.851>, fillcolor="#e5813918"] ;
2 -> 10 ;
11 [label=<X<SUB>22</SUB> &le; -0.065<br/>mse = 221.613<br/>samples = 492<br/>value = 108.988>, fillcolor="#e5813915"] ;
10 -> 11 ;
12 [label=<mse = 59.628<br/>samples = 23<br/>value = 118.769>, fillcolor="#e581391b"] ;
11 -> 12 ;
13 [label=<mse = 224.635<br/>samples = 469<br/>value = 108.508>, fillcolor="#e5813915"] ;
11 -> 13 ;
14 [label=<X<SUB>4</SUB> &le; 120.71<br/>mse = 94.888<br/>samples = 587<br/>value = 116.088>, fillcolor="#e581391a"] ;
10 -> 14 ;
15 [label=<mse = 86.054<br/>samples = 453<br/>value = 114.508>, fillcolor="#e5813919"] ;
14 -> 15 ;
16 [label=<mse = 87.76<br/>samples = 134<br/>value = 121.431>, fillcolor="#e581391d"] ;
14 -> 16 ;
17 [label=<X<SUB>21</SUB> &le; -0.176<br/>mse = 502.879<br/>samples = 270<br/>value = 134.296>, fillcolor="#e5813925"] ;
1 -> 17 ;
18 [label=<X<SUB>39</SUB> &le; 143.437<br/>mse = 1449.965<br/>samples = 37<br/>value = 158.58>, fillcolor="#e5813934"] ;
17 -> 18 ;
19 [label=<X<SUB>20</SUB> &le; 0.008<br/>mse = 653.015<br/>samples = 17<br/>value = 137.267>, fillcolor="#e5813927"] ;
18 -> 19 ;
20 [label=<mse = 369.254<br/>samples = 16<br/>value = 132.898>, fillcolor="#e5813924"] ;
19 -> 20 ;
21 [label=<mse = 0.0<br/>samples = 1<br/>value = 207.179>, fillcolor="#e5813952"] ;
19 -> 21 ;
22 [label=<X<SUB>36</SUB> &le; 220.6<br/>mse = 1413.091<br/>samples = 20<br/>value = 176.696>, fillcolor="#e581393f"] ;
18 -> 22 ;
23 [label=<mse = 935.9<br/>samples = 18<br/>value = 169.293>, fillcolor="#e581393b"] ;
22 -> 23 ;
24 [label=<mse = 775.433<br/>samples = 2<br/>value = 243.323>, fillcolor="#e5813969"] ;
22 -> 24 ;
25 [label=<X<SUB>18</SUB> &le; 282.5<br/>mse = 243.969<br/>samples = 233<br/>value = 130.44>, fillcolor="#e5813923"] ;
17 -> 25 ;
26 [label=<X<SUB>15</SUB> &le; 375.059<br/>mse = 184.746<br/>samples = 80<br/>value = 140.895>, fillcolor="#e5813929"] ;
25 -> 26 ;
27 [label=<mse = 154.211<br/>samples = 75<br/>value = 139.423>, fillcolor="#e5813928"] ;
26 -> 27 ;
28 [label=<mse = 122.638<br/>samples = 5<br/>value = 162.977>, fillcolor="#e5813937"] ;
26 -> 28 ;
29 [label=<X<SUB>13</SUB> &le; 1679.49<br/>mse = 187.893<br/>samples = 153<br/>value = 124.973>, fillcolor="#e581391f"] ;
25 -> 29 ;
30 [label=<mse = 276.252<br/>samples = 22<br/>value = 136.98>, fillcolor="#e5813927"] ;
29 -> 30 ;
31 [label=<mse = 144.777<br/>samples = 131<br/>value = 122.957>, fillcolor="#e581391e"] ;
29 -> 31 ;
32 [label=<X<SUB>40</SUB> &le; 202.42<br/>mse = 1119.491<br/>samples = 682<br/>value = 169.872>, fillcolor="#e581393b"] ;
0 -> 32 [labeldistance=2.5, labelangle=-45, headlabel="False"] ;
33 [label=<X<SUB>22</SUB> &le; 0.398<br/>mse = 586.901<br/>samples = 604<br/>value = 162.666>, fillcolor="#e5813937"] ;
32 -> 33 ;
34 [label=<X<SUB>4</SUB> &le; 165.2<br/>mse = 524.682<br/>samples = 591<br/>value = 163.879>, fillcolor="#e5813937"] ;
33 -> 34 ;
35 [label=<X<SUB>17</SUB> &le; 118.5<br/>mse = 232.552<br/>samples = 333<br/>value = 156.621>, fillcolor="#e5813933"] ;
34 -> 35 ;
36 [label=<mse = 197.178<br/>samples = 332<br/>value = 156.292>, fillcolor="#e5813933"] ;
35 -> 36 ;
37 [label=<mse = 0.0<br/>samples = 1<br/>value = 265.896>, fillcolor="#e5813977"] ;
35 -> 37 ;
38 [label=<X<SUB>4</SUB> &le; 165.257<br/>mse = 746.003<br/>samples = 258<br/>value = 173.246>, fillcolor="#e581393d"] ;
34 -> 38 ;
39 [label=<mse = 0.0<br/>samples = 1<br/>value = 484.848>, fillcolor="#e58139ff"] ;
38 -> 39 ;
40 [label=<mse = 369.631<br/>samples = 257<br/>value = 172.034>, fillcolor="#e581393d"] ;
38 -> 40 ;
41 [label=<X<SUB>21</SUB> &le; 0.761<br/>mse = 306.038<br/>samples = 13<br/>value = 107.507>, fillcolor="#e5813914"] ;
33 -> 41 ;
42 [label=<X<SUB>32</SUB> &le; 53.05<br/>mse = 76.531<br/>samples = 9<br/>value = 117.329>, fillcolor="#e581391b"] ;
41 -> 42 ;
43 [label=<mse = 0.0<br/>samples = 1<br/>value = 136.184>, fillcolor="#e5813926"] ;
42 -> 43 ;
44 [label=<mse = 36.104<br/>samples = 8<br/>value = 114.972>, fillcolor="#e5813919"] ;
42 -> 44 ;
45 [label=<X<SUB>30</SUB> &le; 78.95<br/>mse = 116.907<br/>samples = 4<br/>value = 85.406>, fillcolor="#e5813907"] ;
41 -> 45 ;
46 [label=<mse = 2.047<br/>samples = 2<br/>value = 96.137>, fillcolor="#e581390d"] ;
45 -> 46 ;
47 [label=<mse = 1.479<br/>samples = 2<br/>value = 74.676>, fillcolor="#e5813900"] ;
45 -> 47 ;
48 [label=<X<SUB>40</SUB> &le; 466.933<br/>mse = 1727.947<br/>samples = 78<br/>value = 225.671>, fillcolor="#e581395e"] ;
32 -> 48 ;
49 [label=<X<SUB>3</SUB> &le; 7.885<br/>mse = 291.662<br/>samples = 76<br/>value = 219.513>, fillcolor="#e581395a"] ;
48 -> 49 ;
50 [label=<X<SUB>32</SUB> &le; 471.65<br/>mse = 58.315<br/>samples = 68<br/>value = 223.123>, fillcolor="#e581395c"] ;
49 -> 50 ;
51 [label=<mse = 33.198<br/>samples = 67<br/>value = 223.741>, fillcolor="#e581395d"] ;
50 -> 51 ;
52 [label=<mse = -0.0<br/>samples = 1<br/>value = 181.704>, fillcolor="#e5813943"] ;
50 -> 52 ;
53 [label=<X<SUB>4</SUB> &le; 224.525<br/>mse = 1222.782<br/>samples = 8<br/>value = 188.828>, fillcolor="#e5813947"] ;
49 -> 53 ;
54 [label=<mse = 952.894<br/>samples = 7<br/>value = 196.283>, fillcolor="#e581394c"] ;
53 -> 54 ;
55 [label=<mse = -0.0<br/>samples = 1<br/>value = 136.646>, fillcolor="#e5813927"] ;
53 -> 55 ;
56 [label=<X<SUB>2</SUB> &le; 2.5<br/>mse = 104.925<br/>samples = 2<br/>value = 459.682>, fillcolor="#e58139ef"] ;
48 -> 56 ;
57 [label=<mse = 0.0<br/>samples = 1<br/>value = 449.438>, fillcolor="#e58139e9"] ;
56 -> 57 ;
58 [label=<mse = -0.0<br/>samples = 1<br/>value = 469.925>, fillcolor="#e58139f6"] ;
56 -> 58 ;
}